/*
 * @Descripttion: 
 * @version: 1.0.0
 * @Author: Gager
 * @Date: 2022-11-17 11:58:09
 * @LastEditors: Gager
 */
#ifndef PARAMS_H
#define PARAMS_H

#include <stdlib.h>
#include <math.h>
#include <stdio.h>

float input[8] = {-0.5518800379418609, 0.43128439280179254, -0.04837669553174932, 1.4196154783565755, -0.6090358282423826, -0.183207870676863, -0.15861680709203244, -0.3406292440259526};


float lstm_w_x[128] = {
    -0.46208620071411133, -0.32143330574035645, -0.0748128890991211, -0.11724185943603516, 0.04396533966064453, -0.38408684730529785, 0.11837589740753174, 0.034501075744628906, 0.01275026798248291, -0.44321489334106445, -0.21782779693603516, 0.04437601566314697, 0.2841383218765259, 0.2785564661026001, 0.3307969570159912, -0.40892064571380615, 0.22078359127044678, 0.3419482707977295, -0.05987286567687988, -0.4789752960205078, 0.19223952293395996, 0.2608844041824341, 0.3566560745239258, 0.014540672302246094, 0.23358893394470215, -0.3383626937866211, 0.15480172634124756, 0.4046884775161743, -0.36926746368408203, 0.20785832405090332, -0.28970396518707275, -0.3411893844604492, -0.44537651538848877, -0.4324425458908081, -0.41617047786712646, 0.46918582916259766, -0.31232309341430664, 0.1583268642425537, -0.017674803733825684, 0.48137617111206055, 0.1660294532775879, -0.13020765781402588, 0.45302915573120117, 0.08419239521026611, -0.34736883640289307, 0.1275627613067627, -0.3785041570663452, 0.18967664241790771, 0.10134446620941162, -0.040669918060302734, -0.20809566974639893, 0.37035322189331055, 0.4026966094970703, -0.1813805103302002, -0.211175799369812, 0.2523847818374634, -0.1615678071975708, 0.009097933769226074, 0.3636230230331421, -0.21250319480895996, -0.1449108123779297, -0.08147048950195312, -0.11034667491912842, 0.17174410820007324, 0.06873869895935059, 0.11044466495513916, -0.20340979099273682, -0.25708210468292236, -0.4581412076950073, -0.038523197174072266, 0.3405536413192749, 0.38321805000305176, 0.2754167318344116, -0.10527098178863525, 0.4807015657424927, -0.1432514190673828, 0.09681594371795654, -0.21982967853546143, -0.37985527515411377, 0.1285858154296875, -0.20675361156463623, 0.21128761768341064, 0.10674571990966797, 0.22812938690185547, -0.11834537982940674, -0.4896082878112793, 0.3084310293197632, -0.4709298610687256, 0.3945070505142212, 0.2731139659881592, -0.026532530784606934, -0.19635546207427979, 0.10483455657958984, -0.337848424911499, 0.26116979122161865, -0.2502262592315674, -0.10019469261169434, -0.07116734981536865, 0.021474719047546387, 0.20546388626098633, -0.028575897216796875, -0.025492072105407715, 0.060436367988586426, 0.41735124588012695, -0.18537533283233643, -0.11758065223693848, 0.41355764865875244, 0.49689507484436035, 0.4225577116012573, -0.15009868144989014, 0.2886303663253784, -0.39473259449005127, -0.1798304319381714, 0.0774998664855957, -0.18985188007354736, -0.10332012176513672, -0.006750702857971191, -0.17107439041137695, 0.07236814498901367, -0.08813989162445068, -0.36308515071868896, -0.3785669803619385, 0.42161130905151367, -0.4045407772064209, 0.4862452745437622, -0.08461344242095947, 0.21716976165771484, -0.3330223560333252
};

float lstm_w_x_s[] = {1., 1., 1., 1.};
float lstm_w_x_z[] = {0., 0., 0., 0.};

float lstm_w_h[64] = {
0.30425548553466797, 0.13409030437469482, 0.28097936511039734, 0.05170911177992821, 0.2751223146915436, 0.017263073474168777, 0.0610140822827816, -0.08705715090036392, -0.19142340123653412, -0.10866810381412506, -0.12668445706367493, -0.14554761350154877, 0.5216479897499084, 0.15044352412223816, -0.38868746161460876, -0.4202570915222168, 0.2824352979660034, 0.07889065146446228, -0.023462537676095963, 0.4350307285785675, -0.052609652280807495, 0.17375385761260986, -0.1654883325099945, 0.19248101115226746, 0.28360220789909363, -0.452390193939209, -0.31870442628860474, 0.3419431447982788, 0.12065249681472778, 0.3817072808742523, -0.4095339775085449, 0.38894492387771606, 0.2834361791610718, 0.21465663611888885, 0.29667672514915466, 0.021114692091941833, 0.19325298070907593, 0.3075227737426758, 0.054319269955158234, -0.02375294268131256, -0.32005947828292847, 0.13270245492458344, -0.3968321681022644, 0.08460050076246262, 0.04528290033340454, 0.2951711416244507, -0.2206462323665619, -0.42329370975494385, 0.0368560366332531, 0.01622413843870163, -0.12534496188163757, 0.23115091025829315, -0.11296574026346207, 0.0993700623512268, -0.22329218685626984, -0.080222487449646, -0.31824976205825806, 0.532164990901947, 0.13257601857185364, 0.14197778701782227, -0.08875881135463715, -0.14760594069957733, -0.2696261405944824, -0.1734188348054886
};
float lstm_w_h_s[] = {1., 1., 1., 1.};
float lstm_w_h_z[] = {0., 0., 0., 0.};

float lstm_bias[16] = {0.0, 0.0, 0.0, 0.0, 1.0, 1.0, 1.0, 1.0, 0.0, 0.0, 0.0, 0.0, 0.0, 0.0, 0.0, 0.0};
float lstm_bias_s[] = {1, 1, 1, 1};
float lstm_bias_z[] = {0., 0., 0., 0.};

#endif